<?xml version="1.0"?>
<opencv_storage>
<opencv_ml_svm>
  <format>3</format>
  <svmType>C_SVC</svmType>
  <kernel>
    <type>RBF</type>
    <gamma>1.5000000000000001e-04</gamma></kernel>
  <C>5.0000000000000000e-01</C>
  <term_criteria><epsilon>1.1920928955078125e-07</epsilon></term_criteria>
  <var_count>3</var_count>
  <class_count>2</class_count>
  <class_labels type_id="opencv-matrix">
    <rows>2</rows>
    <cols>1</cols>
    <dt>i</dt>
    <data>
      -1 1</data></class_labels>
  <sv_total>26</sv_total>
  <support_vectors>
    <_>
      227. 186. 102.</_>
    <_>
      211. 175. 107.</_>
    <_>
      215. 175. 109.</_>
    <_>
      197. 142. 51.</_>
    <_>
      210. 157. 54.</_>
    <_>
      162. 110. 69.</_>
    <_>
      192. 138. 75.</_>
    <_>
      189. 146. 74.</_>
    <_>
      186. 118. 75.</_>
    <_>
      187. 129. 64.</_>
    <_>
      128. 126. 40.</_>
    <_>
      170. 195. 71.</_>
    <_>
      164. 190. 65.</_>
    <_>
      152. 174. 68.</_>
    <_>
      255. 255. 255.</_>
    <_>
      55. 116. 202.</_>
    <_>
      57. 51. 138.</_>
    <_>
      165. 94. 121.</_>
    <_>
      68. 168. 249.</_>
    <_>
      143. 171. 72.</_>
    <_>
      63. 248. 233.</_>
    <_>
      221. 214. 176.</_>
    <_>
      152. 171. 118.</_>
    <_>
      114. 119. 67.</_>
    <_>
      163. 162. 157.</_>
    <_>
      15. 15. 15.</_></support_vectors>
  <decision_functions>
    <_>
      <sv_count>26</sv_count>
      <rho>-8.1494508607734428e-01</rho>
      <alpha>
        5.0000000000000000e-01 5.0000000000000000e-01
        1.7064208274066284e-01 1.7877904203191761e-01
        1.6736058087226494e-01 5.0000000000000000e-01
        5.0000000000000000e-01 5.0000000000000000e-01
        6.8452070906807758e-02 4.3036669500210532e-02
        7.7804229221786050e-02 5.0000000000000000e-01
        8.0704683661094651e-02 2.8812347811944122e-02
        1.3062971366981851e-01 5.0000000000000000e-01
        -5.0000000000000000e-01 -5.0000000000000000e-01
        -5.0000000000000000e-01 -2.5231636435651378e-01
        -5.0000000000000000e-01 -1.9390505605999322e-01
        -5.0000000000000000e-01 -5.0000000000000000e-01
        -5.0000000000000000e-01 -5.0000000000000000e-01</alpha>
      <index>
        11 22 23 24 25 10 12 13 14 15 16 17 18 19 20 21 1 2 3 4 5 6 7 8
        9 0</index></_></decision_functions></opencv_ml_svm>
</opencv_storage>
