<?xml version="1.0"?>
<opencv_storage>
<opencv_ml_svm>
  <format>3</format>
  <svmType>C_SVC</svmType>
  <kernel>
    <type>RBF</type>
    <gamma>3.3750000000000002e-02</gamma></kernel>
  <C>2.5000000000000000e+00</C>
  <term_criteria><epsilon>1.1920928955078125e-07</epsilon></term_criteria>
  <var_count>3</var_count>
  <class_count>2</class_count>
  <class_labels type_id="opencv-matrix">
    <rows>2</rows>
    <cols>1</cols>
    <dt>i</dt>
    <data>
      -1 1</data></class_labels>
  <sv_total>259</sv_total>
  <support_vectors>
    <_>
      149. 117. 98.</_>
    <_>
      158. 118. 94.</_>
    <_>
      153. 119. 91.</_>
    <_>
      146. 120. 90.</_>
    <_>
      140. 121. 90.</_>
    <_>
      121. 123. 95.</_>
    <_>
      118. 121. 96.</_>
    <_>
      120. 122. 93.</_>
    <_>
      112. 124. 92.</_>
    <_>
      123. 124. 89.</_>
    <_>
      128. 122. 91.</_>
    <_>
      129. 117. 97.</_>
    <_>
      132. 120. 91.</_>
    <_>
      143. 116. 92.</_>
    <_>
      168. 111. 92.</_>
    <_>
      179. 110. 90.</_>
    <_>
      164. 112. 92.</_>
    <_>
      167. 114. 94.</_>
    <_>
      173. 110. 99.</_>
    <_>
      174. 111. 97.</_>
    <_>
      164. 117. 91.</_>
    <_>
      202. 107. 96.</_>
    <_>
      210. 100. 101.</_>
    <_>
      208. 98. 99.</_>
    <_>
      203. 102. 97.</_>
    <_>
      198. 105. 93.</_>
    <_>
      196. 105. 92.</_>
    <_>
      195. 106. 91.</_>
    <_>
      190. 108. 91.</_>
    <_>
      187. 108. 91.</_>
    <_>
      187. 109. 90.</_>
    <_>
      188. 108. 90.</_>
    <_>
      184. 109. 90.</_>
    <_>
      178. 112. 89.</_>
    <_>
      174. 112. 89.</_>
    <_>
      169. 113. 90.</_>
    <_>
      158. 114. 91.</_>
    <_>
      144. 118. 96.</_>
    <_>
      152. 116. 95.</_>
    <_>
      147. 115. 96.</_>
    <_>
      161. 113. 97.</_>
    <_>
      133. 119. 97.</_>
    <_>
      138. 121. 97.</_>
    <_>
      115. 122. 96.</_>
    <_>
      108. 126. 91.</_>
    <_>
      106. 125. 92.</_>
    <_>
      98. 126. 94.</_>
    <_>
      87. 127. 96.</_>
    <_>
      82. 127. 97.</_>
    <_>
      83. 128. 97.</_>
    <_>
      94. 125. 96.</_>
    <_>
      76. 126. 100.</_>
    <_>
      71. 126. 101.</_>
    <_>
      66. 126. 103.</_>
    <_>
      111. 125. 100.</_>
    <_>
      102. 126. 100.</_>
    <_>
      104. 127. 97.</_>
    <_>
      96. 125. 100.</_>
    <_>
      88. 126. 100.</_>
    <_>
      80. 126. 103.</_>
    <_>
      84. 123. 104.</_>
    <_>
      75. 122. 106.</_>
    <_>
      68. 123. 107.</_>
    <_>
      68. 126. 107.</_>
    <_>
      64. 125. 108.</_>
    <_>
      115. 119. 104.</_>
    <_>
      119. 121. 100.</_>
    <_>
      106. 123. 100.</_>
    <_>
      102. 122. 101.</_>
    <_>
      98. 121. 100.</_>
    <_>
      92. 122. 104.</_>
    <_>
      230. 116. 118.</_>
    <_>
      184. 96. 142.</_>
    <_>
      183. 99. 136.</_>
    <_>
      187. 97. 133.</_>
    <_>
      175. 98. 137.</_>
    <_>
      177. 98. 136.</_>
    <_>
      160. 102. 138.</_>
    <_>
      208. 113. 136.</_>
    <_>
      144. 99. 140.</_>
    <_>
      148. 98. 143.</_>
    <_>
      138. 103. 136.</_>
    <_>
      143. 101. 136.</_>
    <_>
      126. 102. 138.</_>
    <_>
      95. 106. 136.</_>
    <_>
      110. 104. 136.</_>
    <_>
      127. 103. 134.</_>
    <_>
      214. 124. 115.</_>
    <_>
      238. 116. 118.</_>
    <_>
      185. 121. 122.</_>
    <_>
      129. 108. 133.</_>
    <_>
      142. 124. 123.</_>
    <_>
      160. 125. 116.</_>
    <_>
      239. 119. 121.</_>
    <_>
      229. 116. 115.</_>
    <_>
      136. 107. 131.</_>
    <_>
      121. 103. 137.</_>
    <_>
      131. 105. 137.</_>
    <_>
      119. 102. 136.</_>
    <_>
      107. 104. 134.</_>
    <_>
      134. 99. 137.</_>
    <_>
      140. 100. 139.</_>
    <_>
      148. 101. 136.</_>
    <_>
      149. 96. 141.</_>
    <_>
      150. 103. 136.</_>
    <_>
      147. 95. 143.</_>
    <_>
      156. 98. 142.</_>
    <_>
      67. 120. 131.</_>
    <_>
      147. 105. 138.</_>
    <_>
      152. 101. 141.</_>
    <_>
      56. 127. 124.</_>
    <_>
      68. 114. 130.</_>
    <_>
      145. 126. 118.</_>
    <_>
      62. 118. 129.</_>
    <_>
      57. 116. 130.</_>
    <_>
      54. 111. 130.</_>
    <_>
      63. 107. 135.</_>
    <_>
      211. 114. 115.</_>
    <_>
      68. 106. 137.</_>
    <_>
      70. 110. 134.</_>
    <_>
      67. 132. 114.</_>
    <_>
      92. 109. 132.</_>
    <_>
      90. 117. 159.</_>
    <_>
      114. 107. 170.</_>
    <_>
      120. 107. 172.</_>
    <_>
      130. 107. 171.</_>
    <_>
      138. 108. 177.</_>
    <_>
      137. 109. 173.</_>
    <_>
      128. 112. 172.</_>
    <_>
      123. 113. 162.</_>
    <_>
      130. 112. 170.</_>
    <_>
      250. 119. 125.</_>
    <_>
      212. 114. 117.</_>
    <_>
      209. 120. 118.</_>
    <_>
      181. 115. 125.</_>
    <_>
      219. 115. 116.</_>
    <_>
      163. 120. 117.</_>
    <_>
      159. 115. 122.</_>
    <_>
      131. 117. 124.</_>
    <_>
      138. 113. 123.</_>
    <_>
      36. 127. 128.</_>
    <_>
      78. 109. 134.</_>
    <_>
      75. 118. 154.</_>
    <_>
      117. 106. 171.</_>
    <_>
      126. 104. 173.</_>
    <_>
      141. 106. 177.</_>
    <_>
      143. 106. 180.</_>
    <_>
      148. 106. 181.</_>
    <_>
      153. 111. 183.</_>
    <_>
      156. 110. 183.</_>
    <_>
      164. 109. 183.</_>
    <_>
      168. 110. 183.</_>
    <_>
      165. 110. 180.</_>
    <_>
      158. 106. 177.</_>
    <_>
      156. 108. 176.</_>
    <_>
      152. 110. 173.</_>
    <_>
      151. 108. 171.</_>
    <_>
      167. 108. 175.</_>
    <_>
      188. 107. 181.</_>
    <_>
      185. 108. 181.</_>
    <_>
      244. 119. 121.</_>
    <_>
      246. 120. 122.</_>
    <_>
      254. 125. 127.</_>
    <_>
      114. 118. 124.</_>
    <_>
      88. 126. 123.</_>
    <_>
      239. 126. 125.</_>
    <_>
      182. 121. 122.</_>
    <_>
      46. 128. 128.</_>
    <_>
      74. 115. 132.</_>
    <_>
      90. 112. 132.</_>
    <_>
      87. 112. 132.</_>
    <_>
      69. 113. 135.</_>
    <_>
      60. 114. 137.</_>
    <_>
      75. 115. 133.</_>
    <_>
      40. 128. 128.</_>
    <_>
      48. 130. 124.</_>
    <_>
      72. 123. 126.</_>
    <_>
      247. 123. 127.</_>
    <_>
      255. 128. 128.</_>
    <_>
      158. 117. 125.</_>
    <_>
      84. 123. 124.</_>
    <_>
      47. 131. 125.</_>
    <_>
      87. 110. 137.</_>
    <_>
      82. 113. 135.</_>
    <_>
      101. 109. 135.</_>
    <_>
      194. 118. 117.</_>
    <_>
      114. 117. 128.</_>
    <_>
      118. 130. 113.</_>
    <_>
      108. 110. 137.</_>
    <_>
      107. 110. 135.</_>
    <_>
      108. 104. 139.</_>
    <_>
      109. 108. 147.</_>
    <_>
      131. 105. 175.</_>
    <_>
      207. 122. 113.</_>
    <_>
      202. 126. 106.</_>
    <_>
      202. 115. 113.</_>
    <_>
      149. 118. 123.</_>
    <_>
      155. 108. 183.</_>
    <_>
      203. 119. 126.</_>
    <_>
      136. 120. 118.</_>
    <_>
      128. 124. 116.</_>
    <_>
      209. 122. 124.</_>
    <_>
      122. 118. 127.</_>
    <_>
      174. 120. 120.</_>
    <_>
      170. 123. 119.</_>
    <_>
      167. 119. 117.</_>
    <_>
      237. 119. 120.</_>
    <_>
      175. 106. 170.</_>
    <_>
      228. 118. 127.</_>
    <_>
      228. 103. 160.</_>
    <_>
      132. 121. 122.</_>
    <_>
      144. 120. 117.</_>
    <_>
      146. 106. 160.</_>
    <_>
      220. 100. 179.</_>
    <_>
      211. 100. 169.</_>
    <_>
      191. 104. 186.</_>
    <_>
      179. 109. 183.</_>
    <_>
      168. 106. 184.</_>
    <_>
      159. 109. 181.</_>
    <_>
      143. 107. 178.</_>
    <_>
      134. 105. 175.</_>
    <_>
      169. 103. 179.</_>
    <_>
      171. 101. 183.</_>
    <_>
      183. 101. 180.</_>
    <_>
      129. 108. 160.</_>
    <_>
      178. 104. 178.</_>
    <_>
      202. 103. 186.</_>
    <_>
      130. 124. 117.</_>
    <_>
      115. 115. 124.</_>
    <_>
      203. 117. 116.</_>
    <_>
      67. 111. 138.</_>
    <_>
      62. 108. 135.</_>
    <_>
      73. 107. 140.</_>
    <_>
      79. 106. 136.</_>
    <_>
      97. 106. 140.</_>
    <_>
      95. 105. 139.</_>
    <_>
      91. 125. 131.</_>
    <_>
      231. 120. 114.</_>
    <_>
      222. 119. 120.</_>
    <_>
      82. 128. 128.</_>
    <_>
      214. 123. 114.</_>
    <_>
      102. 103. 139.</_>
    <_>
      190. 113. 135.</_>
    <_>
      82. 105. 139.</_>
    <_>
      89. 107. 137.</_>
    <_>
      116. 104. 139.</_>
    <_>
      109. 106. 142.</_>
    <_>
      126. 107. 174.</_>
    <_>
      75. 109. 142.</_>
    <_>
      84. 104. 138.</_>
    <_>
      150. 103. 181.</_>
    <_>
      111. 105. 168.</_>
    <_>
      94. 108. 137.</_>
    <_>
      117. 105. 135.</_>
    <_>
      52. 117. 132.</_>
    <_>
      171. 105. 171.</_>
    <_>
      213. 109. 157.</_>
    <_>
      247. 113. 123.</_>
    <_>
      243. 114. 121.</_></support_vectors>
  <decision_functions>
    <_>
      <sv_count>259</sv_count>
      <rho>-5.4806157489307461e-01</rho>
      <alpha>
        3.3755396625474721e-01 2.5927549671601391e-01
        4.0230482776198556e-01 1.9407792463598184e-01
        1.5963603730290679e-01 2.5968898050259703e-01
        3.2601077413771423e-01 3.4320783639780375e-02
        1.5283425503467943e-01 1.1062120009860305e-01
        4.6289787295694051e-02 2.3535801330553530e-01
        1.1480647427923668e-01 1.3676674403044137e-01
        3.8262556110955692e-01 3.7769117827682573e-03
        1.1244367875761704e-01 1.7402245900225019e-01
        4.5039346640752959e-01 2.2865185782856493e-01
        4.2031563882434725e-01 2.5389670962216554e-01
        4.0676698154701535e-01 2.3319405564187359e-01
        9.5435808980323389e-02 1.1789073702733921e-01
        2.4378455097645096e-01 2.6504293031360093e-01
        7.7310823102609283e-02 7.2607128004229207e-02
        2.8823496248127572e-01 1.0558136222846243e-01
        4.5167853318468548e-01 1.3574404580895033e-01
        3.5270935137419435e-01 3.7634872963925864e-01
        2.9006780723312353e-01 2.5164866962080445e-01
        1.4258133389793248e-01 2.9967066016357080e-01
        3.7678553091714073e-01 1.7009210824125084e-01
        2.1693825813466552e-01 2.1150758198226166e-01
        2.3034003484867865e-01 2.7813991479885658e-01
        1.5681730318176124e-01 1.4101148018200346e-01
        5.1981254320044086e-02 1.2990907734965082e-01
        1.0304470182623374e-01 2.7886093235888987e-01
        2.9232261530635445e-01 2.8661390031031991e-01
        1.8362409459236459e-01 4.4870475665919167e-03
        2.9327420208406535e-01 1.4143365720511690e-02
        2.3439409467501840e-01 1.6250827514984909e-01
        5.1625818749828689e-02 3.2572700513439895e-01
        1.7514914015376533e-02 2.5094240503203863e-01
        7.4106251333690403e-04 1.5069409356074789e-01
        2.0402152732127074e-01 9.4163736471741019e-02
        5.7343014259371876e-02 4.5103032423323219e-01
        2.5791257605904788e-01 4.9403674827204216e-02
        3.4779878225363153e-01 3.2352805182823841e-01
        3.1666569624192759e-01 2.8990061618940904e-01
        4.0819280356682219e-01 2.1702376335888271e-01
        9.8883604878313103e-02 1.3327139030092366e-01
        7.9976039527634615e-02 7.1749325533310662e-02
        3.2918910929599665e-01 1.3980835486855125e-01
        2.9568384783172097e-01 4.5169025344746078e-01
        1.8072934449293759e-01 1.4047234884527790e-01
        1.8998583697431368e-01 3.8170349959636189e-02
        3.6115172259251377e-01 3.4641370433126950e-01
        2.7313784644590677e-01 3.0099038829564623e-01
        2.5037115994013864e-01 1.3797751124250215e-01
        4.5188720790528297e-01 4.2192723508698793e-01
        3.2043274205675121e-01 1.6853084140698013e-01
        2.1865509486935336e-01 2.1705753185697796e-01
        4.4995229060535680e-01 3.7818614706247039e-01
        3.4050656196426121e-01 3.7994911685988020e-01
        2.6890325051378672e-01 3.7535132296025031e-01
        7.5059664775652367e-03 3.7548790123522868e-01
        3.1215885711900049e-01 4.3698837052914791e-01
        1.4895853736123604e-01 1.2234637411026297e-01
        1.8774444727621623e-01 3.5264525695439849e-02
        4.4576371379362772e-01 2.2741933311719564e-01
        4.0179355223591934e-01 3.1450676678015216e-01
        3.2596071341922289e-01 1.3953516133712693e-01
        3.9676649501893274e-01 6.1155462027010242e-02
        1.1524165599376292e-01 7.6795891455954474e-02
        3.4669142020850602e-01 3.7416924706455817e-01
        4.5073460450948799e-01 4.5093493248135441e-01
        1.5531600276181192e-02 8.0757067476061900e-02
        1.0517093267731228e-01 3.1719574390595368e-01
        2.2327727489532834e-01 3.0602076910182935e-01
        2.8436267836998746e-01 2.8505614275780389e-01
        3.8671104923110577e-01 1.5235341831716620e-01
        3.4248121560349143e-01 3.2096906194879815e-02
        9.8845694336932660e-02 1.4615133009261444e-01
        2.2334292077949675e-01 5.5376063513147757e-02
        1.5162504665056312e-01 3.8575037335226836e-01
        1.7592033459736667e-01 3.6481730927408018e-01
        3.7151473502363935e-01 5.9594236096007724e-02
        3.7704871491055086e-01 4.5012491391445036e-01
        2.0362481501743979e-01 3.1200307064340904e-02
        9.6969148437030389e-02 1.4415783326175294e-01
        2.6107800591511321e-01 1.2678078249172789e-02
        2.1160480096837292e-01 7.4489058213810577e-02
        5.0877623042551723e-01 2.2866571563319957e-01
        2.9988466842839351e-01 4.5184380327822027e-01
        1.0587107339103871e-01 2.6045666101843412e-01
        1.2636896492027896e-02 9.3308313950011282e-02
        2.5279602185481659e-01 2.0372832857817447e-01
        1.7420562775055021e-01 2.1451303464537948e-02
        3.1530317209295278e-02 2.0991774112912157e-01
        3.4117469509957649e-01 2.9525776275279314e-01
        2.1885583491038244e-01 2.1694690781714457e-01
        1.1331795230799278e-01 2.0206079779672861e-01
        3.2712847189101929e-01 7.7356521882244039e-02
        2.6918397577361991e-01 2.8696655089238504e-01
        2.1781060810332581e-01 4.2289012502250922e-01
        -1.0385685254263584e-01 -8.2089615642577018e-01
        -6.8575036761020436e-01 -1.0009670868393554e+00
        -1.0197924712072211e+00 -8.5998023920917177e-01
        -3.0265032558938149e-01 -1.1887226743977495e+00
        -1.6255430063406223e-01 -4.9744304571551760e-02
        -8.4463999481997815e-02 -4.0059255066418881e-01
        -6.7255138395979708e-01 -5.8899148867930573e-01
        -8.6510581025422706e-01 -6.8380074467917984e-01
        -8.5022791117779897e-02 -6.5785424002046414e-02
        -8.0532014864977364e-01 -4.2747525018381605e-01
        -8.5014845574069275e-01 -7.2130825046069846e-01
        -9.2547385828661344e-01 -4.3707519628499175e-01
        -9.3617901655491842e-01 -5.3269544553276682e-01
        -9.6997192119042827e-02 -2.4522559997459645e-01
        -7.8319459573799544e-01 -1.0921275461285100e+00
        -5.1325570943340104e-01 -1.1501118881731276e+00
        -8.0057545672001207e-01 -6.4320065346201760e-01
        -5.8820415864372677e-01 -3.6475489383572868e-01
        -4.1196494230876185e-01 -1.0963952584437355e+00
        -9.9243125343287752e-01 -3.4787092752181775e-01
        -2.6542188094077762e-01 -9.7413169797970350e-02
        -4.4278655149124252e-01 -3.1628779160541587e-01
        -9.0383303850858998e-01 -6.6371557922471625e-01
        -7.3567824984153596e-02 -1.0478628431259074e+00
        -1.1915933701341686e+00 -7.1591417650919997e-01
        -3.8712314576997714e-01 -5.3154825299870567e-01
        -6.2173046057874304e-01 -1.1664371188395313e+00
        -1.0859298814299343e+00 -6.9806261281546955e-01
        -1.4092635749575491e-01 -1.5868496287119463e-01
        -3.6840381914789672e-01 -1.0596678127096890e+00
        -2.4179312836756023e-01 -3.1332855412643340e-01
        -5.9667584126374051e-01 -4.6940666740734449e-01
        -8.6507400511185994e-01 -8.1784235474660849e-01
        -5.7242851644796056e-01 -2.4646005891811812e-01
        -6.1469876327852546e-01 -6.8477913143403812e-01
        -7.0625015367057475e-01</alpha>
      <index>
        178 177 176 175 174 173 172 171 170 169 168 167 166 192 191 190
        189 188 187 186 185 184 165 183 182 181 180 179 133 145 144 143
        142 141 140 139 138 137 136 135 134 132 131 130 158 164 163 162
        161 160 159 193 157 156 155 154 153 152 151 150 149 148 147 146
        247 246 245 244 243 242 241 240 239 248 238 237 236 235 234 233
        232 231 254 258 257 256 255 230 253 252 251 250 249 203 211 210
        209 208 207 206 205 204 212 202 201 200 199 198 197 196 195 194
        220 229 228 227 226 225 224 223 222 221 129 219 218 217 216 215
        214 213 93 85 86 87 88 89 90 91 92 94 95 96 97 98 99 79 71 72 73
        74 75 76 77 78 128 80 81 82 83 84 118 119 120 121 100 122 123
        124 125 126 127 117 101 102 103 104 105 106 107 108 109 116 115
        114 113 112 111 110 25 24 23 22 21 20 19 18 17 16 31 35 34 33 32
        26 30 29 28 27 4 3 2 1 0 5 6 7 8 9 10 11 12 13 14 15 62 61 60 59
        58 57 56 55 54 53 63 64 65 66 67 68 69 70 42 36 37 38 39 40 41
        43 44 45 46 47 48 49 50 51 52</index></_></decision_functions></opencv_ml_svm>
</opencv_storage>
