<?xml version="1.0"?>
<opencv_storage>
<opencv_ml_svm>
  <format>3</format>
  <svmType>C_SVC</svmType>
  <kernel>
    <type>RBF</type>
    <gamma>1.5000000000000001e-04</gamma></kernel>
  <C>5.0000000000000000e-01</C>
  <term_criteria><epsilon>1.1920928955078125e-07</epsilon></term_criteria>
  <var_count>3</var_count>
  <class_count>2</class_count>
  <class_labels type_id="opencv-matrix">
    <rows>2</rows>
    <cols>1</cols>
    <dt>i</dt>
    <data>
      -1 1</data></class_labels>
  <sv_total>46</sv_total>
  <support_vectors>
    <_>
      110. 148. 146.</_>
    <_>
      71. 140. 131.</_>
    <_>
      77. 150. 136.</_>
    <_>
      72. 151. 136.</_>
    <_>
      85. 159. 149.</_>
    <_>
      108. 151. 138.</_>
    <_>
      136. 160. 143.</_>
    <_>
      96. 150. 136.</_>
    <_>
      108. 149. 137.</_>
    <_>
      133. 171. 155.</_>
    <_>
      127. 167. 150.</_>
    <_>
      132. 171. 152.</_>
    <_>
      129. 171. 150.</_>
    <_>
      70. 163. 145.</_>
    <_>
      58. 158. 143.</_>
    <_>
      76. 161. 143.</_>
    <_>
      61. 155. 139.</_>
    <_>
      99. 161. 145.</_>
    <_>
      86. 157. 140.</_>
    <_>
      129. 169. 149.</_>
    <_>
      108. 159. 144.</_>
    <_>
      215. 67. 201.</_>
    <_>
      114. 143. 152.</_>
    <_>
      148. 141. 141.</_>
    <_>
      90. 128. 129.</_>
    <_>
      68. 128. 129.</_>
    <_>
      76. 127. 131.</_>
    <_>
      87. 128. 131.</_>
    <_>
      41. 129. 127.</_>
    <_>
      58. 131. 126.</_>
    <_>
      134. 119. 176.</_>
    <_>
      123. 128. 144.</_>
    <_>
      255. 128. 128.</_>
    <_>
      153. 156. 104.</_>
    <_>
      167. 160. 106.</_>
    <_>
      88. 131. 141.</_>
    <_>
      107. 130. 134.</_>
    <_>
      132. 134. 149.</_>
    <_>
      162. 160. 105.</_>
    <_>
      130. 136. 150.</_>
    <_>
      27. 130. 127.</_>
    <_>
      107. 140. 128.</_>
    <_>
      74. 138. 133.</_>
    <_>
      76. 143. 134.</_>
    <_>
      64. 143. 138.</_>
    <_>
      95. 126. 145.</_></support_vectors>
  <decision_functions>
    <_>
      <sv_count>46</sv_count>
      <rho>-7.2300802803661346e-01</rho>
      <alpha>
        5.0000000000000000e-01 5.0000000000000000e-01
        3.5991702036655665e-01 1.4448537445314091e-01
        5.0000000000000000e-01 5.0000000000000000e-01
        5.0000000000000000e-01 5.0000000000000000e-01
        5.0000000000000000e-01 7.0591043957164382e-02
        5.0000000000000000e-01 5.0000000000000000e-01
        2.3394604069172945e-01 5.0000000000000000e-01
        5.0000000000000000e-01 5.0000000000000000e-01
        1.0694802570701303e-01 5.0000000000000000e-01
        5.0000000000000000e-01 1.2141405598534757e-02
        5.0000000000000000e-01 1.6746381931536919e-01
        5.0000000000000000e-01 5.0000000000000000e-01
        5.0000000000000000e-01 -5.0000000000000000e-01
        -5.0000000000000000e-01 -5.0000000000000000e-01
        -5.0000000000000000e-01 -5.0000000000000000e-01
        -5.0000000000000000e-01 -5.0000000000000000e-01
        -5.0000000000000000e-01 -5.0000000000000000e-01
        -5.0000000000000000e-01 -9.5492730089508329e-02
        -5.0000000000000000e-01 -5.0000000000000000e-01
        -5.0000000000000000e-01 -5.0000000000000000e-01
        -5.0000000000000000e-01 -5.0000000000000000e-01
        -5.0000000000000000e-01 -5.0000000000000000e-01
        -5.0000000000000000e-01 -5.0000000000000000e-01</alpha>
      <index>
        38 39 40 30 41 42 43 44 45 21 22 23 24 25 26 27 28 29 31 32 33
        34 35 36 37 1 2 3 4 5 6 7 8 9 10 12 13 14 15 16 17 18 19 20 11 0</index></_></decision_functions></opencv_ml_svm>
</opencv_storage>
