<?xml version="1.0"?>
<opencv_storage>
<opencv_ml_svm>
  <format>3</format>
  <svmType>C_SVC</svmType>
  <kernel>
    <type>RBF</type>
    <gamma>3.3750000000000002e-02</gamma></kernel>
  <C>2.5000000000000000e+00</C>
  <term_criteria><epsilon>1.1920928955078125e-07</epsilon></term_criteria>
  <var_count>3</var_count>
  <class_count>2</class_count>
  <class_labels type_id="opencv-matrix">
    <rows>2</rows>
    <cols>1</cols>
    <dt>i</dt>
    <data>
      -1 1</data></class_labels>
  <sv_total>50</sv_total>
  <support_vectors>
    <_>
      112. 119. 107.</_>
    <_>
      111. 119. 109.</_>
    <_>
      105. 121. 106.</_>
    <_>
      98. 119. 107.</_>
    <_>
      87. 122. 111.</_>
    <_>
      98. 119. 112.</_>
    <_>
      103. 116. 110.</_>
    <_>
      80. 120. 115.</_>
    <_>
      88. 118. 109.</_>
    <_>
      94. 122. 107.</_>
    <_>
      79. 122. 110.</_>
    <_>
      76. 121. 114.</_>
    <_>
      255. 127. 130.</_>
    <_>
      89. 130. 120.</_>
    <_>
      138. 116. 130.</_>
    <_>
      182. 117. 126.</_>
    <_>
      167. 100. 187.</_>
    <_>
      154. 100. 183.</_>
    <_>
      136. 106. 148.</_>
    <_>
      132. 108. 148.</_>
    <_>
      129. 109. 140.</_>
    <_>
      116. 109. 139.</_>
    <_>
      129. 104. 175.</_>
    <_>
      138. 104. 178.</_>
    <_>
      155. 97. 156.</_>
    <_>
      71. 129. 130.</_>
    <_>
      142. 115. 143.</_>
    <_>
      199. 110. 137.</_>
    <_>
      194. 119. 133.</_>
    <_>
      216. 112. 135.</_>
    <_>
      228. 114. 137.</_>
    <_>
      130. 101. 147.</_>
    <_>
      110. 105. 146.</_>
    <_>
      118. 106. 144.</_>
    <_>
      92. 110. 143.</_>
    <_>
      105. 106. 143.</_>
    <_>
      106. 104. 149.</_>
    <_>
      100. 105. 143.</_>
    <_>
      104. 111. 142.</_>
    <_>
      83. 115. 141.</_>
    <_>
      93. 113. 145.</_>
    <_>
      88. 112. 144.</_>
    <_>
      117. 126. 138.</_>
    <_>
      194. 115. 142.</_>
    <_>
      186. 116. 136.</_>
    <_>
      233. 116. 135.</_>
    <_>
      83. 114. 138.</_>
    <_>
      125. 105. 146.</_>
    <_>
      120. 108. 143.</_>
    <_>
      98. 112. 140.</_></support_vectors>
  <decision_functions>
    <_>
      <sv_count>50</sv_count>
      <rho>-6.3901827587819127e-01</rho>
      <alpha>
        2.4943685039287394e-01 3.5763079824288369e-01
        3.3059298270427839e-01 3.2302969619071492e-01
        3.5936408088142568e-01 2.6937839189704954e-01
        2.5174100026181712e-01 2.0756822276240500e-01
        1.7067852863369976e-01 1.0176544317425756e-01
        2.8954446603999807e-02 2.3791469009911712e-01
        3.6099046072022672e-01 2.3108636432554819e-01
        1.4842477481246530e-01 1.7747236418041012e-01
        1.7411127102226226e-01 3.6096581401332445e-01
        3.1175503655431813e-01 3.2322854963941683e-01
        2.7252577717790660e-01 2.3279561284651837e-01
        1.9941407822344173e-01 7.7244623834488019e-02
        2.1594897776381455e-01 3.6098166820384964e-01
        3.6098172356322028e-01 3.6785584650379760e-01
        3.6017644864710169e-01 3.5433131444138510e-01
        3.6028190430114260e-01 3.6026658169998071e-01
        2.4609382035452332e-01 1.4320084223953183e-01
        3.1359981831480849e-01 2.7743368034261207e-01
        3.4446389493061219e-01 3.4444712522856075e-01
        -5.0124814040148213e-01 -1.0109937167313157e+00
        -1.0461024473326432e+00 -3.5411494320052966e-01
        -8.5201403525911612e-01 -9.3608716646617185e-01
        -9.7506116611210514e-01 -7.3992892768811369e-01
        -9.7229624161549744e-01 -1.0409256561740969e+00
        -8.8329013086577735e-01 -8.5607093388293998e-01</alpha>
      <index>
        37 26 27 28 29 30 31 32 33 34 35 36 25 38 39 40 41 42 43 44 45
        46 47 48 49 24 12 13 14 15 16 17 18 19 20 21 22 23 1 0 2 3 4 5 6
        7 8 9 10 11</index></_></decision_functions></opencv_ml_svm>
</opencv_storage>
