<?xml version="1.0"?>
<opencv_storage>
<opencv_ml_svm>
  <format>3</format>
  <svmType>C_SVC</svmType>
  <kernel>
    <type>RBF</type>
    <gamma>2.2500000000000003e-03</gamma></kernel>
  <C>2.5000000000000000e+00</C>
  <term_criteria><epsilon>1.1920928955078125e-07</epsilon></term_criteria>
  <var_count>3</var_count>
  <class_count>2</class_count>
  <class_labels type_id="opencv-matrix">
    <rows>2</rows>
    <cols>1</cols>
    <dt>i</dt>
    <data>
      -1 1</data></class_labels>
  <sv_total>49</sv_total>
  <support_vectors>
    <_>
      165. 112. 97.</_>
    <_>
      190. 103. 96.</_>
    <_>
      206. 99. 98.</_>
    <_>
      177. 105. 97.</_>
    <_>
      142. 117. 93.</_>
    <_>
      124. 119. 94.</_>
    <_>
      143. 104. 111.</_>
    <_>
      134. 120. 90.</_>
    <_>
      145. 118. 89.</_>
    <_>
      150. 117. 91.</_>
    <_>
      189. 106. 93.</_>
    <_>
      225. 87. 110.</_>
    <_>
      212. 95. 101.</_>
    <_>
      148. 122. 102.</_>
    <_>
      164. 117. 110.</_>
    <_>
      228. 91. 197.</_>
    <_>
      209. 92. 173.</_>
    <_>
      221. 84. 178.</_>
    <_>
      177. 90. 190.</_>
    <_>
      175. 90. 183.</_>
    <_>
      180. 92. 177.</_>
    <_>
      186. 86. 179.</_>
    <_>
      194. 98. 194.</_>
    <_>
      212. 91. 201.</_>
    <_>
      159. 89. 151.</_>
    <_>
      122. 145. 145.</_>
    <_>
      119. 140. 132.</_>
    <_>
      131. 142. 131.</_>
    <_>
      107. 144. 133.</_>
    <_>
      112. 147. 131.</_>
    <_>
      104. 155. 134.</_>
    <_>
      89. 154. 146.</_>
    <_>
      73. 118. 127.</_>
    <_>
      114. 98. 142.</_>
    <_>
      97. 105. 136.</_>
    <_>
      83. 152. 144.</_>
    <_>
      255. 128. 128.</_>
    <_>
      80. 128. 131.</_>
    <_>
      221. 100. 123.</_>
    <_>
      158. 98. 126.</_>
    <_>
      230. 103. 113.</_>
    <_>
      183. 116. 108.</_>
    <_>
      207. 109. 117.</_>
    <_>
      153. 121. 107.</_>
    <_>
      106. 105. 127.</_>
    <_>
      138. 102. 127.</_>
    <_>
      200. 86. 130.</_>
    <_>
      184. 99. 143.</_>
    <_>
      73. 114. 130.</_></support_vectors>
  <decision_functions>
    <_>
      <sv_count>49</sv_count>
      <rho>-6.2393045970555616e-01</rho>
      <alpha>
        5.0769498157083794e-02 5.2715639199932329e-02
        1.2401193594496386e-01 8.1783840642751099e-03
        4.4001913109183227e-01 1.2415259064579805e-01
        3.2355617339653797e-01 2.7715064283662172e-01
        1.2421994995070502e-02 5.8395253804070764e-03
        1.3724584799356135e-01 3.1625510393088418e-02
        2.0344240526219370e-01 1.7911187422966621e-01
        1.8185234552660873e-01 2.0000315520577622e-01
        2.9659787260696469e-01 3.2449274653275645e-01
        2.0806842502741357e-01 9.8017989744022413e-02
        4.3663045768226338e-01 1.3883294076194561e+00
        1.3130469637721569e+00 1.3845497541190013e+00
        4.3590485309537669e-01 1.5246075754472621e-01
        1.6740640263253012e-01 2.2480787913745726e-01
        8.4665284810548147e-01 2.5000000000000000e+00
        1.2228731109626712e-01 1.4597820871481115e-01
        1.3410851367894105e-01 1.0168961649940290e-01
        7.7940759140429194e-02 2.6946059159255468e-02
        -1.2799045888819198e+00 -3.4078962941276791e-01
        -3.8231364050781441e-01 -9.4614295110489777e-01
        -5.5408554141878974e-01 -1.9649240885059771e+00
        -2.5000000000000000e+00 -6.3949666538902239e-01
        -8.8273973093112246e-02 -2.3537090868673554e+00
        -1.0694181620512228e-01 -1.2438926945660869e+00
        -3.3753880427926514e-01</alpha>
      <index>
        33 32 34 31 38 37 36 35 29 28 27 26 25 24 30 44 43 42 48 47 46
        41 45 40 39 17 16 15 14 13 23 22 18 19 20 21 5 4 3 2 1 0 6 10 12
        11 7 9 8</index></_></decision_functions></opencv_ml_svm>
</opencv_storage>
