<?xml version="1.0"?>
<opencv_storage>
<opencv_ml_svm>
  <format>3</format>
  <svmType>C_SVC</svmType>
  <kernel>
    <type>RBF</type>
    <gamma>1.5000000000000001e-04</gamma></kernel>
  <C>1.0000000000000001e-01</C>
  <term_criteria><epsilon>1.1920928955078125e-07</epsilon></term_criteria>
  <var_count>3</var_count>
  <class_count>2</class_count>
  <class_labels type_id="opencv-matrix">
    <rows>2</rows>
    <cols>1</cols>
    <dt>i</dt>
    <data>
      -1 1</data></class_labels>
  <sv_total>76</sv_total>
  <support_vectors>
    <_>
      116. 152. 126.</_>
    <_>
      101. 154. 133.</_>
    <_>
      103. 156. 135.</_>
    <_>
      101. 159. 133.</_>
    <_>
      101. 157. 136.</_>
    <_>
      100. 162. 135.</_>
    <_>
      89. 163. 140.</_>
    <_>
      92. 164. 144.</_>
    <_>
      89. 157. 141.</_>
    <_>
      95. 155. 134.</_>
    <_>
      93. 151. 140.</_>
    <_>
      96. 157. 138.</_>
    <_>
      88. 153. 137.</_>
    <_>
      87. 157. 141.</_>
    <_>
      86. 154. 138.</_>
    <_>
      81. 155. 140.</_>
    <_>
      78. 155. 137.</_>
    <_>
      76. 157. 138.</_>
    <_>
      78. 161. 143.</_>
    <_>
      83. 166. 146.</_>
    <_>
      160. 179. 139.</_>
    <_>
      173. 172. 138.</_>
    <_>
      183. 170. 134.</_>
    <_>
      100. 156. 130.</_>
    <_>
      112. 156. 134.</_>
    <_>
      116. 161. 130.</_>
    <_>
      151. 172. 136.</_>
    <_>
      152. 176. 135.</_>
    <_>
      156. 178. 134.</_>
    <_>
      163. 173. 135.</_>
    <_>
      173. 170. 133.</_>
    <_>
      167. 176. 132.</_>
    <_>
      157. 178. 139.</_>
    <_>
      156. 180. 141.</_>
    <_>
      114. 160. 133.</_>
    <_>
      113. 164. 133.</_>
    <_>
      158. 181. 140.</_>
    <_>
      156. 181. 136.</_>
    <_>
      97. 105. 130.</_>
    <_>
      158. 120. 117.</_>
    <_>
      154. 118. 121.</_>
    <_>
      160. 115. 125.</_>
    <_>
      132. 135. 74.</_>
    <_>
      127. 138. 71.</_>
    <_>
      89. 103. 136.</_>
    <_>
      217. 101. 199.</_>
    <_>
      247. 105. 203.</_>
    <_>
      124. 119. 125.</_>
    <_>
      209. 98. 196.</_>
    <_>
      220. 101. 201.</_>
    <_>
      90. 118. 130.</_>
    <_>
      255. 128. 128.</_>
    <_>
      203. 113. 120.</_>
    <_>
      82. 127. 124.</_>
    <_>
      157. 118. 109.</_>
    <_>
      255. 128. 128.</_>
    <_>
      255. 128. 128.</_>
    <_>
      255. 128. 128.</_>
    <_>
      104. 124. 128.</_>
    <_>
      71. 123. 123.</_>
    <_>
      65. 120. 125.</_>
    <_>
      61. 119. 129.</_>
    <_>
      97. 113. 121.</_>
    <_>
      95. 106. 130.</_>
    <_>
      108. 104. 132.</_>
    <_>
      89. 106. 128.</_>
    <_>
      84. 104. 134.</_>
    <_>
      99. 103. 135.</_>
    <_>
      97. 106. 126.</_>
    <_>
      88. 107. 130.</_>
    <_>
      97. 103. 133.</_>
    <_>
      150. 126. 80.</_>
    <_>
      152. 117. 123.</_>
    <_>
      151. 126. 79.</_>
    <_>
      105. 104. 132.</_>
    <_>
      99. 103. 137.</_></support_vectors>
  <decision_functions>
    <_>
      <sv_count>76</sv_count>
      <rho>-5.1253171820110233e-01</rho>
      <alpha>
        1.0000000000000001e-01 1.0000000000000001e-01
        1.0000000000000001e-01 1.0000000000000001e-01
        9.9993900099657793e-02 1.0000000000000001e-01
        1.0000000000000001e-01 1.0000000000000001e-01
        1.0000000000000001e-01 1.0000000000000001e-01
        1.0000000000000001e-01 9.7483898448592635e-02
        1.0000000000000001e-01 1.0000000000000001e-01
        1.0000000000000001e-01 1.0000000000000001e-01
        1.0000000000000001e-01 9.8483883359552202e-02
        1.0000000000000001e-01 1.0000000000000001e-01
        1.0000000000000001e-01 1.0000000000000001e-01
        1.0000000000000001e-01 1.0000000000000001e-01
        1.0000000000000001e-01 1.0000000000000001e-01
        1.0000000000000001e-01 1.0000000000000001e-01
        6.5475250455195338e-02 1.0000000000000001e-01
        1.0000000000000001e-01 1.0000000000000001e-01
        1.0000000000000001e-01 1.0000000000000001e-01
        1.0000000000000001e-01 1.0000000000000001e-01
        1.0000000000000001e-01 1.0000000000000001e-01
        -1.0000000000000001e-01 -1.0000000000000001e-01
        -1.0000000000000001e-01 -1.0000000000000001e-01
        -1.0000000000000001e-01 -1.0000000000000001e-01
        -1.0000000000000001e-01 -1.0000000000000001e-01
        -1.0000000000000001e-01 -1.0000000000000001e-01
        -1.0000000000000001e-01 -1.0000000000000001e-01
        -1.0000000000000001e-01 -1.0000000000000001e-01
        -1.0000000000000001e-01 -1.0000000000000001e-01
        -1.0000000000000001e-01 -1.0000000000000001e-01
        -1.0000000000000001e-01 -1.0000000000000001e-01
        -1.0000000000000001e-01 -1.0000000000000001e-01
        -1.0000000000000001e-01 -1.0000000000000001e-01
        -1.0000000000000001e-01 -1.0000000000000001e-01
        -1.0000000000000001e-01 -1.0000000000000001e-01
        -1.0000000000000001e-01 -1.0000000000000001e-01
        -1.0000000000000001e-01 -1.0000000000000001e-01
        -1.0000000000000001e-01 -1.0000000000000001e-01
        -1.0000000000000001e-01 -6.1436932362997951e-02
        -1.0000000000000001e-01 -1.0000000000000001e-01</alpha>
      <index>
        61 60 59 58 57 56 55 54 53 62 52 51 50 44 43 42 41 49 48 47 46
        45 74 73 72 71 75 65 70 69 68 67 66 64 63 40 39 38 27 26 25 24
        23 22 21 20 28 29 30 31 32 1 16 0 2 3 4 5 6 7 8 9 10 11 12 13 14
        15 17 18 19 36 37 33 34 35</index></_></decision_functions></opencv_ml_svm>
</opencv_storage>
