<?xml version="1.0"?>
<opencv_storage>
<opencv_ml_svm>
  <format>3</format>
  <svmType>C_SVC</svmType>
  <kernel>
    <type>RBF</type>
    <gamma>1.0000000000000001e-05</gamma></kernel>
  <C>1.0000000000000001e-01</C>
  <term_criteria><epsilon>1.1920928955078125e-07</epsilon></term_criteria>
  <var_count>3</var_count>
  <class_count>2</class_count>
  <class_labels type_id="opencv-matrix">
    <rows>2</rows>
    <cols>1</cols>
    <dt>i</dt>
    <data>
      -1 1</data></class_labels>
  <sv_total>284</sv_total>
  <support_vectors>
    <_>
      216. 101. 177.</_>
    <_>
      216. 97. 189.</_>
    <_>
      220. 96. 196.</_>
    <_>
      229. 95. 197.</_>
    <_>
      236. 97. 196.</_>
    <_>
      245. 103. 198.</_>
    <_>
      249. 109. 193.</_>
    <_>
      250. 112. 184.</_>
    <_>
      250. 113. 181.</_>
    <_>
      249. 111. 188.</_>
    <_>
      250. 115. 172.</_>
    <_>
      252. 117. 166.</_>
    <_>
      251. 118. 160.</_>
    <_>
      250. 114. 172.</_>
    <_>
      249. 110. 184.</_>
    <_>
      248. 109. 168.</_>
    <_>
      241. 101. 181.</_>
    <_>
      246. 107. 184.</_>
    <_>
      249. 112. 177.</_>
    <_>
      248. 108. 191.</_>
    <_>
      246. 106. 186.</_>
    <_>
      242. 99. 197.</_>
    <_>
      242. 99. 194.</_>
    <_>
      240. 100. 180.</_>
    <_>
      240. 99. 184.</_>
    <_>
      237. 97. 184.</_>
    <_>
      235. 102. 172.</_>
    <_>
      234. 97. 167.</_>
    <_>
      245. 101. 186.</_>
    <_>
      251. 116. 161.</_>
    <_>
      245. 101. 202.</_>
    <_>
      245. 101. 202.</_>
    <_>
      231. 102. 203.</_>
    <_>
      221. 102. 199.</_>
    <_>
      214. 101. 198.</_>
    <_>
      205. 99. 196.</_>
    <_>
      198. 101. 191.</_>
    <_>
      195. 100. 195.</_>
    <_>
      191. 102. 190.</_>
    <_>
      189. 103. 189.</_>
    <_>
      192. 100. 190.</_>
    <_>
      197. 99. 193.</_>
    <_>
      197. 99. 195.</_>
    <_>
      199. 100. 189.</_>
    <_>
      205. 98. 190.</_>
    <_>
      206. 98. 187.</_>
    <_>
      207. 95. 193.</_>
    <_>
      211. 96. 189.</_>
    <_>
      214. 101. 189.</_>
    <_>
      214. 98. 188.</_>
    <_>
      218. 95. 188.</_>
    <_>
      231. 96. 195.</_>
    <_>
      246. 104. 194.</_>
    <_>
      250. 112. 186.</_>
    <_>
      250. 112. 186.</_>
    <_>
      249. 110. 194.</_>
    <_>
      248. 108. 200.</_>
    <_>
      247. 106. 198.</_>
    <_>
      238. 102. 197.</_>
    <_>
      238. 102. 197.</_>
    <_>
      225. 97. 202.</_>
    <_>
      227. 98. 197.</_>
    <_>
      228. 97. 198.</_>
    <_>
      224. 96. 202.</_>
    <_>
      224. 98. 198.</_>
    <_>
      224. 96. 198.</_>
    <_>
      222. 99. 193.</_>
    <_>
      226. 95. 195.</_>
    <_>
      218. 95. 196.</_>
    <_>
      218. 99. 198.</_>
    <_>
      215. 97. 193.</_>
    <_>
      213. 96. 199.</_>
    <_>
      212. 98. 195.</_>
    <_>
      210. 101. 190.</_>
    <_>
      207. 100. 198.</_>
    <_>
      205. 101. 197.</_>
    <_>
      202. 98. 195.</_>
    <_>
      199. 100. 196.</_>
    <_>
      198. 101. 195.</_>
    <_>
      200. 97. 196.</_>
    <_>
      207. 103. 198.</_>
    <_>
      213. 101. 200.</_>
    <_>
      219. 102. 201.</_>
    <_>
      233. 104. 200.</_>
    <_>
      199. 101. 196.</_>
    <_>
      202. 101. 193.</_>
    <_>
      209. 100. 198.</_>
    <_>
      215. 100. 200.</_>
    <_>
      218. 100. 202.</_>
    <_>
      225. 105. 204.</_>
    <_>
      231. 102. 205.</_>
    <_>
      235. 100. 205.</_>
    <_>
      219. 102. 199.</_>
    <_>
      218. 102. 199.</_>
    <_>
      212. 99. 201.</_>
    <_>
      205. 101. 190.</_>
    <_>
      210. 102. 194.</_>
    <_>
      211. 101. 195.</_>
    <_>
      227. 102. 204.</_>
    <_>
      237. 103. 203.</_>
    <_>
      239. 102. 201.</_>
    <_>
      232. 100. 199.</_>
    <_>
      224. 100. 199.</_>
    <_>
      215. 101. 198.</_>
    <_>
      210. 99. 198.</_>
    <_>
      212. 101. 197.</_>
    <_>
      218. 103. 197.</_>
    <_>
      234. 101. 205.</_>
    <_>
      236. 100. 206.</_>
    <_>
      249. 109. 200.</_>
    <_>
      249. 109. 199.</_>
    <_>
      246. 103. 201.</_>
    <_>
      229. 99. 199.</_>
    <_>
      223. 102. 199.</_>
    <_>
      218. 104. 193.</_>
    <_>
      218. 97. 198.</_>
    <_>
      223. 97. 199.</_>
    <_>
      243. 103. 201.</_>
    <_>
      248. 109. 195.</_>
    <_>
      248. 107. 200.</_>
    <_>
      234. 101. 198.</_>
    <_>
      235. 99. 195.</_>
    <_>
      243. 99. 196.</_>
    <_>
      249. 110. 192.</_>
    <_>
      249. 110. 195.</_>
    <_>
      225. 101. 202.</_>
    <_>
      220. 101. 201.</_>
    <_>
      204. 100. 194.</_>
    <_>
      204. 102. 192.</_>
    <_>
      207. 98. 198.</_>
    <_>
      209. 98. 194.</_>
    <_>
      212. 97. 195.</_>
    <_>
      218. 95. 192.</_>
    <_>
      221. 99. 193.</_>
    <_>
      225. 99. 200.</_>
    <_>
      211. 97. 192.</_>
    <_>
      217. 98. 196.</_>
    <_>
      219. 96. 197.</_>
    <_>
      217. 95. 199.</_>
    <_>
      220. 98. 196.</_>
    <_>
      229. 99. 198.</_>
    <_>
      223. 100. 201.</_>
    <_>
      208. 94. 120.</_>
    <_>
      221. 89. 107.</_>
    <_>
      255. 128. 128.</_>
    <_>
      255. 128. 128.</_>
    <_>
      172. 136. 125.</_>
    <_>
      194. 95. 128.</_>
    <_>
      189. 91. 132.</_>
    <_>
      162. 96. 131.</_>
    <_>
      145. 92. 141.</_>
    <_>
      142. 94. 142.</_>
    <_>
      138. 96. 139.</_>
    <_>
      142. 92. 140.</_>
    <_>
      163. 97. 131.</_>
    <_>
      165. 150. 140.</_>
    <_>
      130. 186. 149.</_>
    <_>
      128. 188. 150.</_>
    <_>
      134. 189. 148.</_>
    <_>
      146. 188. 141.</_>
    <_>
      157. 184. 135.</_>
    <_>
      135. 189. 150.</_>
    <_>
      162. 104. 138.</_>
    <_>
      212. 96. 102.</_>
    <_>
      224. 88. 109.</_>
    <_>
      225. 90. 109.</_>
    <_>
      234. 100. 115.</_>
    <_>
      226. 88. 111.</_>
    <_>
      184. 96. 128.</_>
    <_>
      231. 124. 128.</_>
    <_>
      255. 128. 128.</_>
    <_>
      230. 101. 120.</_>
    <_>
      251. 122. 126.</_>
    <_>
      255. 128. 128.</_>
    <_>
      255. 128. 128.</_>
    <_>
      255. 128. 128.</_>
    <_>
      250. 119. 125.</_>
    <_>
      255. 128. 128.</_>
    <_>
      209. 131. 129.</_>
    <_>
      255. 128. 128.</_>
    <_>
      255. 128. 128.</_>
    <_>
      226. 122. 124.</_>
    <_>
      223. 115. 121.</_>
    <_>
      188. 96. 133.</_>
    <_>
      164. 94. 134.</_>
    <_>
      148. 96. 134.</_>
    <_>
      152. 94. 137.</_>
    <_>
      140. 91. 144.</_>
    <_>
      217. 113. 123.</_>
    <_>
      197. 113. 132.</_>
    <_>
      177. 114. 130.</_>
    <_>
      251. 122. 125.</_>
    <_>
      215. 100. 121.</_>
    <_>
      189. 103. 125.</_>
    <_>
      212. 112. 123.</_>
    <_>
      169. 92. 131.</_>
    <_>
      233. 113. 128.</_>
    <_>
      198. 100. 125.</_>
    <_>
      179. 115. 127.</_>
    <_>
      161. 96. 133.</_>
    <_>
      140. 97. 141.</_>
    <_>
      145. 95. 135.</_>
    <_>
      148. 97. 133.</_>
    <_>
      255. 128. 128.</_>
    <_>
      222. 127. 117.</_>
    <_>
      167. 93. 133.</_>
    <_>
      158. 96. 134.</_>
    <_>
      156. 96. 135.</_>
    <_>
      181. 90. 132.</_>
    <_>
      185. 92. 134.</_>
    <_>
      178. 123. 125.</_>
    <_>
      250. 118. 125.</_>
    <_>
      221. 122. 118.</_>
    <_>
      238. 119. 123.</_>
    <_>
      168. 95. 134.</_>
    <_>
      158. 96. 133.</_>
    <_>
      142. 98. 137.</_>
    <_>
      147. 98. 135.</_>
    <_>
      165. 96. 133.</_>
    <_>
      163. 92. 139.</_>
    <_>
      187. 92. 134.</_>
    <_>
      183. 96. 130.</_>
    <_>
      254. 127. 128.</_>
    <_>
      191. 116. 118.</_>
    <_>
      224. 113. 122.</_>
    <_>
      184. 96. 128.</_>
    <_>
      255. 128. 128.</_>
    <_>
      254. 126. 127.</_>
    <_>
      254. 126. 127.</_>
    <_>
      254. 126. 127.</_>
    <_>
      254. 125. 128.</_>
    <_>
      200. 103. 132.</_>
    <_>
      255. 128. 128.</_>
    <_>
      253. 123. 126.</_>
    <_>
      254. 126. 127.</_>
    <_>
      187. 95. 127.</_>
    <_>
      172. 96. 133.</_>
    <_>
      154. 97. 134.</_>
    <_>
      143. 93. 139.</_>
    <_>
      159. 93. 139.</_>
    <_>
      156. 92. 137.</_>
    <_>
      175. 92. 137.</_>
    <_>
      178. 95. 134.</_>
    <_>
      155. 92. 140.</_>
    <_>
      150. 98. 133.</_>
    <_>
      148. 94. 137.</_>
    <_>
      155. 95. 134.</_>
    <_>
      176. 94. 139.</_>
    <_>
      202. 91. 130.</_>
    <_>
      190. 92. 136.</_>
    <_>
      202. 92. 135.</_>
    <_>
      194. 89. 134.</_>
    <_>
      215. 117. 123.</_>
    <_>
      219. 119. 110.</_>
    <_>
      189. 95. 127.</_>
    <_>
      149. 92. 139.</_>
    <_>
      146. 95. 141.</_>
    <_>
      147. 91. 142.</_>
    <_>
      173. 90. 137.</_>
    <_>
      182. 95. 121.</_>
    <_>
      211. 96. 101.</_>
    <_>
      255. 128. 128.</_>
    <_>
      182. 129. 128.</_>
    <_>
      216. 98. 127.</_>
    <_>
      189. 92. 133.</_>
    <_>
      137. 93. 138.</_>
    <_>
      137. 96. 138.</_>
    <_>
      175. 91. 135.</_>
    <_>
      204. 88. 135.</_>
    <_>
      255. 128. 128.</_>
    <_>
      255. 128. 128.</_>
    <_>
      255. 128. 128.</_>
    <_>
      206. 93. 131.</_>
    <_>
      180. 91. 133.</_>
    <_>
      138. 96. 138.</_>
    <_>
      145. 94. 137.</_>
    <_>
      185. 93. 133.</_>
    <_>
      180. 93. 133.</_>
    <_>
      169. 96. 129.</_>
    <_>
      199. 93. 129.</_>
    <_>
      231. 115. 119.</_>
    <_>
      173. 94. 131.</_>
    <_>
      159. 97. 129.</_>
    <_>
      152. 97. 133.</_></support_vectors>
  <decision_functions>
    <_>
      <sv_count>284</sv_count>
      <rho>-2.2744547426700626e-01</rho>
      <alpha>
        1.0000000000000001e-01 1.0000000000000001e-01
        1.0000000000000001e-01 1.0000000000000001e-01
        1.0000000000000001e-01 1.0000000000000001e-01
        1.0000000000000001e-01 1.0000000000000001e-01
        1.0000000000000001e-01 1.0000000000000001e-01
        1.0000000000000001e-01 1.0000000000000001e-01
        1.0000000000000001e-01 1.0000000000000001e-01
        1.0000000000000001e-01 1.0000000000000001e-01
        1.0000000000000001e-01 1.0000000000000001e-01
        1.0000000000000001e-01 1.0000000000000001e-01
        1.0000000000000001e-01 1.0000000000000001e-01
        1.0000000000000001e-01 1.0000000000000001e-01
        1.0000000000000001e-01 1.0000000000000001e-01
        1.0000000000000001e-01 1.0000000000000001e-01
        1.0000000000000001e-01 1.0000000000000001e-01
        1.0000000000000001e-01 1.0000000000000001e-01
        1.0000000000000001e-01 1.0000000000000001e-01
        1.0000000000000001e-01 1.0000000000000001e-01
        1.0000000000000001e-01 1.0000000000000001e-01
        1.0000000000000001e-01 1.0000000000000001e-01
        1.0000000000000001e-01 1.0000000000000001e-01
        1.0000000000000001e-01 1.0000000000000001e-01
        1.0000000000000001e-01 1.0000000000000001e-01
        1.0000000000000001e-01 1.0000000000000001e-01
        7.9727480829406963e-02 1.0000000000000001e-01
        1.0000000000000001e-01 1.0000000000000001e-01
        1.0000000000000001e-01 1.0000000000000001e-01
        1.0000000000000001e-01 1.0000000000000001e-01
        1.0000000000000001e-01 1.0000000000000001e-01
        1.0000000000000001e-01 1.0000000000000001e-01
        1.0000000000000001e-01 1.0000000000000001e-01
        1.0000000000000001e-01 1.0000000000000001e-01
        1.0000000000000001e-01 1.0000000000000001e-01
        1.0000000000000001e-01 1.0000000000000001e-01
        1.0000000000000001e-01 1.0000000000000001e-01
        1.0000000000000001e-01 1.0000000000000001e-01
        1.0000000000000001e-01 1.0000000000000001e-01
        1.0000000000000001e-01 1.0000000000000001e-01
        1.0000000000000001e-01 1.0000000000000001e-01
        1.0000000000000001e-01 1.0000000000000001e-01
        1.0000000000000001e-01 1.0000000000000001e-01
        1.0000000000000001e-01 1.0000000000000001e-01
        1.0000000000000001e-01 1.0000000000000001e-01
        1.0000000000000001e-01 1.0000000000000001e-01
        1.0000000000000001e-01 1.0000000000000001e-01
        1.0000000000000001e-01 1.0000000000000001e-01
        1.0000000000000001e-01 1.0000000000000001e-01
        1.0000000000000001e-01 1.0000000000000001e-01
        1.0000000000000001e-01 1.0000000000000001e-01
        1.0000000000000001e-01 1.0000000000000001e-01
        1.0000000000000001e-01 1.0000000000000001e-01
        1.0000000000000001e-01 1.0000000000000001e-01
        1.0000000000000001e-01 1.0000000000000001e-01
        1.0000000000000001e-01 1.0000000000000001e-01
        1.0000000000000001e-01 1.0000000000000001e-01
        1.0000000000000001e-01 1.0000000000000001e-01
        1.0000000000000001e-01 1.0000000000000001e-01
        1.0000000000000001e-01 1.0000000000000001e-01
        1.0000000000000001e-01 1.0000000000000001e-01
        1.0000000000000001e-01 1.0000000000000001e-01
        1.0000000000000001e-01 1.0000000000000001e-01
        1.0000000000000001e-01 1.0000000000000001e-01
        1.0000000000000001e-01 1.0000000000000001e-01
        1.0000000000000001e-01 1.0000000000000001e-01
        1.0000000000000001e-01 1.0000000000000001e-01
        1.0000000000000001e-01 1.0000000000000001e-01
        1.0000000000000001e-01 1.0000000000000001e-01
        1.0000000000000001e-01 1.0000000000000001e-01
        1.0000000000000001e-01 1.0000000000000001e-01
        1.0000000000000001e-01 1.0000000000000001e-01
        1.0000000000000001e-01 1.0000000000000001e-01
        -1.0000000000000001e-01 -1.0000000000000001e-01
        -1.0000000000000001e-01 -1.0000000000000001e-01
        -1.0000000000000001e-01 -1.0000000000000001e-01
        -1.0000000000000001e-01 -1.0000000000000001e-01
        -1.0000000000000001e-01 -1.0000000000000001e-01
        -1.0000000000000001e-01 -1.0000000000000001e-01
        -1.0000000000000001e-01 -1.0000000000000001e-01
        -1.0000000000000001e-01 -1.0000000000000001e-01
        -1.0000000000000001e-01 -1.0000000000000001e-01
        -1.0000000000000001e-01 -1.0000000000000001e-01
        -1.0000000000000001e-01 -1.0000000000000001e-01
        -1.0000000000000001e-01 -1.0000000000000001e-01
        -1.0000000000000001e-01 -1.0000000000000001e-01
        -1.0000000000000001e-01 -1.0000000000000001e-01
        -1.0000000000000001e-01 -1.0000000000000001e-01
        -1.0000000000000001e-01 -1.0000000000000001e-01
        -1.0000000000000001e-01 -1.0000000000000001e-01
        -1.0000000000000001e-01 -1.0000000000000001e-01
        -1.0000000000000001e-01 -1.0000000000000001e-01
        -1.0000000000000001e-01 -1.0000000000000001e-01
        -1.0000000000000001e-01 -1.0000000000000001e-01
        -1.0000000000000001e-01 -1.0000000000000001e-01
        -1.0000000000000001e-01 -1.0000000000000001e-01
        -1.0000000000000001e-01 -1.0000000000000001e-01
        -1.0000000000000001e-01 -1.0000000000000001e-01
        -1.0000000000000001e-01 -1.0000000000000001e-01
        -1.0000000000000001e-01 -1.0000000000000001e-01
        -1.0000000000000001e-01 -1.0000000000000001e-01
        -1.0000000000000001e-01 -1.0000000000000001e-01
        -1.0000000000000001e-01 -1.0000000000000001e-01
        -1.0000000000000001e-01 -1.0000000000000001e-01
        -1.0000000000000001e-01 -1.0000000000000001e-01
        -1.0000000000000001e-01 -7.9727480829406963e-02
        -1.0000000000000001e-01 -1.0000000000000001e-01
        -1.0000000000000001e-01 -1.0000000000000001e-01
        -1.0000000000000001e-01 -1.0000000000000001e-01
        -1.0000000000000001e-01 -1.0000000000000001e-01
        -1.0000000000000001e-01 -1.0000000000000001e-01
        -1.0000000000000001e-01 -1.0000000000000001e-01
        -1.0000000000000001e-01 -1.0000000000000001e-01
        -1.0000000000000001e-01 -1.0000000000000001e-01
        -1.0000000000000001e-01 -1.0000000000000001e-01
        -1.0000000000000001e-01 -1.0000000000000001e-01
        -1.0000000000000001e-01 -1.0000000000000001e-01
        -1.0000000000000001e-01 -1.0000000000000001e-01
        -1.0000000000000001e-01 -1.0000000000000001e-01
        -1.0000000000000001e-01 -1.0000000000000001e-01
        -1.0000000000000001e-01 -1.0000000000000001e-01
        -1.0000000000000001e-01 -1.0000000000000001e-01
        -1.0000000000000001e-01 -1.0000000000000001e-01
        -1.0000000000000001e-01 -1.0000000000000001e-01
        -1.0000000000000001e-01 -1.0000000000000001e-01
        -1.0000000000000001e-01 -1.0000000000000001e-01
        -1.0000000000000001e-01 -1.0000000000000001e-01
        -1.0000000000000001e-01 -1.0000000000000001e-01
        -1.0000000000000001e-01 -1.0000000000000001e-01
        -1.0000000000000001e-01 -1.0000000000000001e-01
        -1.0000000000000001e-01 -1.0000000000000001e-01
        -1.0000000000000001e-01 -1.0000000000000001e-01
        -1.0000000000000001e-01 -1.0000000000000001e-01
        -1.0000000000000001e-01 -1.0000000000000001e-01
        -1.0000000000000001e-01 -1.0000000000000001e-01
        -1.0000000000000001e-01 -1.0000000000000001e-01
        -1.0000000000000001e-01 -1.0000000000000001e-01
        -1.0000000000000001e-01 -1.0000000000000001e-01
        -1.0000000000000001e-01 -1.0000000000000001e-01
        -1.0000000000000001e-01 -1.0000000000000001e-01
        -1.0000000000000001e-01 -1.0000000000000001e-01
        -1.0000000000000001e-01 -1.0000000000000001e-01
        -1.0000000000000001e-01 -1.0000000000000001e-01
        -1.0000000000000001e-01 -1.0000000000000001e-01</alpha>
      <index>
        199 196 197 198 200 195 204 201 202 203 205 206 188 189 190 192
        193 194 191 261 257 258 259 260 262 263 264 253 247 248 249 250
        251 252 254 255 256 282 275 276 277 278 279 280 281 283 272 265
        266 267 268 269 270 271 246 273 274 218 215 216 217 214 219 220
        221 222 223 224 225 226 227 207 208 209 210 211 212 213 238 239
        240 241 242 243 244 245 236 228 229 230 231 232 233 234 235 237
        156 157 158 159 160 142 143 144 145 146 147 148 149 150 151 152
        153 154 155 171 172 173 174 175 176 177 178 179 180 181 182 183
        184 185 186 187 169 170 161 162 163 168 167 166 165 164 56 55 54
        53 52 51 50 49 48 47 46 45 44 43 42 41 40 39 38 37 66 75 74 73
        72 71 70 69 68 67 57 65 64 63 62 61 60 59 58 9 18 17 16 15 14 13
        12 11 10 19 8 7 6 5 4 3 2 0 1 27 35 34 33 32 31 30 29 28 36 26
        25 24 23 22 21 20 115 123 122 121 120 119 118 117 116 124 114
        113 112 111 110 109 108 133 141 140 139 138 137 136 135 134 107
        132 131 130 129 128 127 126 125 84 90 89 88 87 86 85 91 83 82 81
        80 79 78 77 106 105 104 103 102 101 100 76 99 98 97 96 95 94 93
        92</index></_></decision_functions></opencv_ml_svm>
</opencv_storage>
