<?xml version="1.0"?>
<opencv_storage>
<opencv_ml_svm>
  <format>3</format>
  <svmType>C_SVC</svmType>
  <kernel>
    <type>RBF</type>
    <gamma>1.5000000000000001e-04</gamma></kernel>
  <C>1.0000000000000001e-01</C>
  <term_criteria><epsilon>1.1920928955078125e-07</epsilon></term_criteria>
  <var_count>3</var_count>
  <class_count>2</class_count>
  <class_labels type_id="opencv-matrix">
    <rows>2</rows>
    <cols>1</cols>
    <dt>i</dt>
    <data>
      -1 1</data></class_labels>
  <sv_total>67</sv_total>
  <support_vectors>
    <_>
      231. 91. 171.</_>
    <_>
      225. 89. 179.</_>
    <_>
      222. 91. 173.</_>
    <_>
      224. 86. 186.</_>
    <_>
      238. 88. 184.</_>
    <_>
      238. 92. 194.</_>
    <_>
      243. 98. 188.</_>
    <_>
      215. 85. 180.</_>
    <_>
      218. 90. 179.</_>
    <_>
      218. 84. 181.</_>
    <_>
      182. 90. 190.</_>
    <_>
      186. 95. 190.</_>
    <_>
      238. 89. 193.</_>
    <_>
      215. 86. 180.</_>
    <_>
      209. 89. 181.</_>
    <_>
      202. 87. 183.</_>
    <_>
      193. 89. 183.</_>
    <_>
      187. 89. 185.</_>
    <_>
      184. 91. 180.</_>
    <_>
      179. 92. 175.</_>
    <_>
      176. 94. 176.</_>
    <_>
      170. 97. 177.</_>
    <_>
      175. 91. 189.</_>
    <_>
      177. 96. 189.</_>
    <_>
      183. 96. 192.</_>
    <_>
      182. 92. 191.</_>
    <_>
      180. 100. 184.</_>
    <_>
      180. 96. 189.</_>
    <_>
      177. 94. 190.</_>
    <_>
      178. 90. 188.</_>
    <_>
      178. 91. 189.</_>
    <_>
      180. 92. 187.</_>
    <_>
      208. 89. 183.</_>
    <_>
      91. 156. 140.</_>
    <_>
      88. 152. 137.</_>
    <_>
      95. 155. 139.</_>
    <_>
      97. 153. 141.</_>
    <_>
      144. 90. 139.</_>
    <_>
      147. 96. 137.</_>
    <_>
      164. 93. 133.</_>
    <_>
      255. 128. 128.</_>
    <_>
      255. 128. 128.</_>
    <_>
      206. 87. 134.</_>
    <_>
      187. 90. 131.</_>
    <_>
      190. 87. 132.</_>
    <_>
      178. 88. 135.</_>
    <_>
      254. 126. 127.</_>
    <_>
      156. 93. 135.</_>
    <_>
      161. 93. 133.</_>
    <_>
      185. 83. 136.</_>
    <_>
      233. 101. 124.</_>
    <_>
      255. 128. 128.</_>
    <_>
      255. 128. 128.</_>
    <_>
      255. 128. 128.</_>
    <_>
      240. 114. 123.</_>
    <_>
      211. 94. 125.</_>
    <_>
      167. 87. 135.</_>
    <_>
      176. 87. 134.</_>
    <_>
      168. 91. 132.</_>
    <_>
      160. 97. 136.</_>
    <_>
      166. 90. 132.</_>
    <_>
      160. 93. 134.</_>
    <_>
      210. 85. 126.</_>
    <_>
      253. 125. 127.</_>
    <_>
      158. 93. 138.</_>
    <_>
      152. 91. 138.</_>
    <_>
      242. 102. 120.</_></support_vectors>
  <decision_functions>
    <_>
      <sv_count>67</sv_count>
      <rho>-4.8704549233276329e-01</rho>
      <alpha>
        1.0000000000000001e-01 1.0000000000000001e-01
        1.0000000000000001e-01 1.0000000000000001e-01
        1.0000000000000001e-01 1.0000000000000001e-01
        1.0000000000000001e-01 1.0000000000000001e-01
        1.0000000000000001e-01 1.0000000000000001e-01
        1.0000000000000001e-01 1.0000000000000001e-01
        2.3133903464561699e-02 1.0000000000000001e-01
        1.0000000000000001e-01 1.0000000000000001e-01
        1.0000000000000001e-01 1.0000000000000001e-01
        1.0000000000000001e-01 1.0000000000000001e-01
        1.0000000000000001e-01 1.0000000000000001e-01
        1.0000000000000001e-01 1.0000000000000001e-01
        1.0000000000000001e-01 1.0000000000000001e-01
        1.0000000000000001e-01 1.0000000000000001e-01
        1.0000000000000001e-01 1.0000000000000001e-01
        3.0050224023616613e-02 1.0000000000000001e-01
        8.8644452648610317e-02 1.0000000000000001e-01
        -1.0000000000000001e-01 -1.0000000000000001e-01
        -1.0000000000000001e-01 -1.0000000000000001e-01
        -1.0000000000000001e-01 -1.0000000000000001e-01
        -1.0000000000000001e-01 -1.0000000000000001e-01
        -1.0000000000000001e-01 -1.0000000000000001e-01
        -4.1828580136788605e-02 -1.0000000000000001e-01
        -1.0000000000000001e-01 -1.0000000000000001e-01
        -1.0000000000000001e-01 -1.0000000000000001e-01
        -1.0000000000000001e-01 -1.0000000000000001e-01
        -1.0000000000000001e-01 -1.0000000000000001e-01
        -1.0000000000000001e-01 -1.0000000000000001e-01
        -1.0000000000000001e-01 -1.0000000000000001e-01
        -1.0000000000000001e-01 -1.0000000000000001e-01
        -1.0000000000000001e-01 -1.0000000000000001e-01
        -1.0000000000000001e-01 -1.0000000000000001e-01
        -1.0000000000000001e-01 -1.0000000000000001e-01
        -1.0000000000000001e-01</alpha>
      <index>
        49 43 44 45 46 47 48 42 50 51 52 53 54 55 40 41 66 60 56 57 58
        59 61 62 63 64 65 33 34 35 36 37 38 39 12 13 14 6 0 1 2 3 4 5 11
        7 8 9 10 32 25 16 17 18 19 20 21 22 23 24 15 26 27 28 29 30 31</index></_></decision_functions></opencv_ml_svm>
</opencv_storage>
