<?xml version="1.0"?>
<opencv_storage>
<opencv_ml_svm>
  <format>3</format>
  <svmType>C_SVC</svmType>
  <kernel>
    <type>RBF</type>
    <gamma>1.0000000000000001e-05</gamma></kernel>
  <C>5.0000000000000000e-01</C>
  <term_criteria><epsilon>1.1920928955078125e-07</epsilon></term_criteria>
  <var_count>3</var_count>
  <class_count>2</class_count>
  <class_labels type_id="opencv-matrix">
    <rows>2</rows>
    <cols>1</cols>
    <dt>i</dt>
    <data>
      -1 1</data></class_labels>
  <sv_total>191</sv_total>
  <support_vectors>
    <_>
      145. 110. 162.</_>
    <_>
      138. 110. 169.</_>
    <_>
      142. 107. 166.</_>
    <_>
      143. 112. 168.</_>
    <_>
      137. 111. 167.</_>
    <_>
      138. 113. 162.</_>
    <_>
      138. 110. 163.</_>
    <_>
      141. 108. 162.</_>
    <_>
      133. 112. 163.</_>
    <_>
      121. 115. 163.</_>
    <_>
      124. 110. 165.</_>
    <_>
      134. 109. 163.</_>
    <_>
      129. 111. 166.</_>
    <_>
      132. 111. 172.</_>
    <_>
      132. 110. 170.</_>
    <_>
      134. 112. 173.</_>
    <_>
      132. 110. 173.</_>
    <_>
      130. 111. 168.</_>
    <_>
      130. 108. 173.</_>
    <_>
      132. 111. 171.</_>
    <_>
      133. 108. 175.</_>
    <_>
      132. 108. 175.</_>
    <_>
      125. 111. 172.</_>
    <_>
      126. 111. 174.</_>
    <_>
      131. 107. 175.</_>
    <_>
      128. 106. 174.</_>
    <_>
      121. 107. 173.</_>
    <_>
      114. 110. 168.</_>
    <_>
      113. 109. 167.</_>
    <_>
      113. 109. 168.</_>
    <_>
      115. 110. 170.</_>
    <_>
      117. 107. 172.</_>
    <_>
      119. 108. 170.</_>
    <_>
      125. 108. 174.</_>
    <_>
      136. 108. 177.</_>
    <_>
      165. 109. 176.</_>
    <_>
      156. 110. 173.</_>
    <_>
      154. 107. 176.</_>
    <_>
      159. 109. 176.</_>
    <_>
      152. 110. 175.</_>
    <_>
      137. 111. 177.</_>
    <_>
      153. 111. 163.</_>
    <_>
      143. 106. 177.</_>
    <_>
      140. 107. 178.</_>
    <_>
      138. 105. 178.</_>
    <_>
      134. 107. 175.</_>
    <_>
      130. 107. 175.</_>
    <_>
      128. 108. 175.</_>
    <_>
      130. 104. 176.</_>
    <_>
      135. 106. 176.</_>
    <_>
      152. 107. 175.</_>
    <_>
      148. 109. 167.</_>
    <_>
      175. 105. 176.</_>
    <_>
      156. 109. 177.</_>
    <_>
      141. 110. 177.</_>
    <_>
      135. 107. 175.</_>
    <_>
      130. 105. 173.</_>
    <_>
      130. 108. 174.</_>
    <_>
      127. 106. 172.</_>
    <_>
      124. 107. 173.</_>
    <_>
      122. 106. 169.</_>
    <_>
      130. 106. 174.</_>
    <_>
      138. 103. 177.</_>
    <_>
      149. 105. 177.</_>
    <_>
      148. 102. 174.</_>
    <_>
      165. 110. 177.</_>
    <_>
      192. 101. 177.</_>
    <_>
      134. 107. 176.</_>
    <_>
      110. 111. 165.</_>
    <_>
      86. 119. 161.</_>
    <_>
      121. 109. 168.</_>
    <_>
      140. 107. 173.</_>
    <_>
      139. 106. 177.</_>
    <_>
      134. 104. 174.</_>
    <_>
      140. 107. 178.</_>
    <_>
      166. 103. 171.</_>
    <_>
      163. 105. 174.</_>
    <_>
      157. 103. 176.</_>
    <_>
      155. 107. 177.</_>
    <_>
      141. 107. 175.</_>
    <_>
      138. 108. 169.</_>
    <_>
      135. 107. 177.</_>
    <_>
      139. 106. 178.</_>
    <_>
      137. 108. 178.</_>
    <_>
      125. 107. 174.</_>
    <_>
      120. 109. 172.</_>
    <_>
      119. 107. 172.</_>
    <_>
      118. 110. 172.</_>
    <_>
      110. 109. 170.</_>
    <_>
      129. 108. 175.</_>
    <_>
      139. 105. 178.</_>
    <_>
      146. 109. 176.</_>
    <_>
      137. 105. 178.</_>
    <_>
      136. 102. 178.</_>
    <_>
      69. 113. 134.</_>
    <_>
      82. 112. 133.</_>
    <_>
      91. 113. 132.</_>
    <_>
      101. 114. 131.</_>
    <_>
      79. 127. 133.</_>
    <_>
      156. 118. 122.</_>
    <_>
      101. 111. 133.</_>
    <_>
      190. 123. 124.</_>
    <_>
      95. 108. 137.</_>
    <_>
      102. 107. 135.</_>
    <_>
      94. 105. 137.</_>
    <_>
      88. 107. 135.</_>
    <_>
      88. 112. 131.</_>
    <_>
      74. 114. 134.</_>
    <_>
      74. 115. 134.</_>
    <_>
      72. 116. 135.</_>
    <_>
      190. 118. 127.</_>
    <_>
      158. 121. 124.</_>
    <_>
      91. 110. 134.</_>
    <_>
      84. 105. 137.</_>
    <_>
      81. 106. 139.</_>
    <_>
      74. 108. 136.</_>
    <_>
      77. 107. 136.</_>
    <_>
      82. 105. 139.</_>
    <_>
      73. 109. 140.</_>
    <_>
      85. 108. 135.</_>
    <_>
      96. 106. 140.</_>
    <_>
      91. 109. 134.</_>
    <_>
      131. 108. 137.</_>
    <_>
      106. 107. 136.</_>
    <_>
      219. 111. 122.</_>
    <_>
      108. 106. 137.</_>
    <_>
      128. 103. 135.</_>
    <_>
      116. 103. 136.</_>
    <_>
      83. 113. 134.</_>
    <_>
      162. 112. 124.</_>
    <_>
      170. 116. 121.</_>
    <_>
      146. 113. 124.</_>
    <_>
      255. 128. 128.</_>
    <_>
      255. 128. 128.</_>
    <_>
      255. 127. 128.</_>
    <_>
      255. 128. 128.</_>
    <_>
      255. 128. 128.</_>
    <_>
      255. 128. 128.</_>
    <_>
      255. 128. 128.</_>
    <_>
      255. 128. 128.</_>
    <_>
      243. 117. 125.</_>
    <_>
      255. 128. 128.</_>
    <_>
      255. 128. 128.</_>
    <_>
      255. 128. 128.</_>
    <_>
      207. 112. 126.</_>
    <_>
      255. 128. 128.</_>
    <_>
      255. 128. 128.</_>
    <_>
      255. 128. 128.</_>
    <_>
      128. 106. 140.</_>
    <_>
      75. 108. 135.</_>
    <_>
      81. 110. 134.</_>
    <_>
      89. 106. 136.</_>
    <_>
      99. 108. 134.</_>
    <_>
      102. 108. 134.</_>
    <_>
      143. 122. 123.</_>
    <_>
      86. 110. 133.</_>
    <_>
      74. 111. 133.</_>
    <_>
      79. 110. 134.</_>
    <_>
      68. 112. 134.</_>
    <_>
      70. 111. 135.</_>
    <_>
      83. 109. 134.</_>
    <_>
      88. 110. 132.</_>
    <_>
      81. 110. 134.</_>
    <_>
      104. 125. 148.</_>
    <_>
      108. 109. 133.</_>
    <_>
      71. 114. 134.</_>
    <_>
      76. 110. 133.</_>
    <_>
      65. 107. 135.</_>
    <_>
      175. 101. 137.</_>
    <_>
      147. 102. 136.</_>
    <_>
      136. 104. 134.</_>
    <_>
      130. 101. 135.</_>
    <_>
      120. 104. 136.</_>
    <_>
      122. 101. 137.</_>
    <_>
      95. 108. 132.</_>
    <_>
      97. 108. 134.</_>
    <_>
      94. 107. 135.</_>
    <_>
      84. 110. 137.</_>
    <_>
      92. 112. 132.</_>
    <_>
      101. 103. 138.</_>
    <_>
      126. 106. 135.</_>
    <_>
      151. 104. 133.</_>
    <_>
      255. 127. 128.</_>
    <_>
      212. 113. 129.</_>
    <_>
      155. 103. 132.</_>
    <_>
      147. 100. 135.</_>
    <_>
      174. 99. 132.</_>
    <_>
      165. 95. 139.</_>
    <_>
      181. 96. 137.</_>
    <_>
      160. 99. 142.</_>
    <_>
      135. 122. 126.</_></support_vectors>
  <decision_functions>
    <_>
      <sv_count>191</sv_count>
      <rho>-1.5584941169074493e+00</rho>
      <alpha>
        1.0025549126039357e-01 1.8026557795437156e-01
        5.0000000000000000e-01 5.0000000000000000e-01
        5.0000000000000000e-01 5.0000000000000000e-01
        5.0000000000000000e-01 5.0000000000000000e-01
        2.8819651864878415e-01 5.0000000000000000e-01
        5.0000000000000000e-01 5.0000000000000000e-01
        5.0000000000000000e-01 5.0000000000000000e-01
        5.0000000000000000e-01 5.0000000000000000e-01
        5.0000000000000000e-01 5.0000000000000000e-01
        5.0000000000000000e-01 5.0000000000000000e-01
        5.3303854092341977e-03 5.0000000000000000e-01
        5.0000000000000000e-01 5.0000000000000000e-01
        5.0000000000000000e-01 5.0000000000000000e-01
        5.0000000000000000e-01 5.0000000000000000e-01
        5.0000000000000000e-01 5.0000000000000000e-01
        5.0000000000000000e-01 5.0000000000000000e-01
        5.0000000000000000e-01 5.0000000000000000e-01
        5.0000000000000000e-01 5.0000000000000000e-01
        5.0000000000000000e-01 5.0000000000000000e-01
        5.0000000000000000e-01 5.0000000000000000e-01
        5.0000000000000000e-01 5.0000000000000000e-01
        5.0000000000000000e-01 5.0000000000000000e-01
        5.0000000000000000e-01 5.0000000000000000e-01
        5.0000000000000000e-01 5.0000000000000000e-01
        5.0000000000000000e-01 5.0000000000000000e-01
        5.0000000000000000e-01 5.0000000000000000e-01
        5.0000000000000000e-01 5.0000000000000000e-01
        5.0000000000000000e-01 5.0000000000000000e-01
        5.0000000000000000e-01 5.0000000000000000e-01
        5.0000000000000000e-01 5.0000000000000000e-01
        5.0000000000000000e-01 5.0000000000000000e-01
        5.0000000000000000e-01 5.0000000000000000e-01
        5.0000000000000000e-01 5.0000000000000000e-01
        5.0000000000000000e-01 5.0000000000000000e-01
        5.0000000000000000e-01 5.0000000000000000e-01
        5.0000000000000000e-01 5.0000000000000000e-01
        5.0000000000000000e-01 5.0000000000000000e-01
        5.0000000000000000e-01 5.0000000000000000e-01
        5.0000000000000000e-01 5.0000000000000000e-01
        5.0000000000000000e-01 5.0000000000000000e-01
        5.0000000000000000e-01 5.0000000000000000e-01
        5.0000000000000000e-01 4.6222569318027137e-02
        5.0000000000000000e-01 5.0000000000000000e-01
        5.0000000000000000e-01 5.0000000000000000e-01
        5.0000000000000000e-01 5.0000000000000000e-01
        5.0000000000000000e-01 5.0000000000000000e-01
        5.0000000000000000e-01 5.0000000000000000e-01
        5.0000000000000000e-01 5.0000000000000000e-01
        5.0000000000000000e-01 -5.0000000000000000e-01
        -5.0000000000000000e-01 -5.0000000000000000e-01
        -5.0000000000000000e-01 -5.0000000000000000e-01
        -5.0000000000000000e-01 -5.0000000000000000e-01
        -5.0000000000000000e-01 -5.0000000000000000e-01
        -5.0000000000000000e-01 -5.0000000000000000e-01
        -5.0000000000000000e-01 -5.0000000000000000e-01
        -5.0000000000000000e-01 -5.0000000000000000e-01
        -5.0000000000000000e-01 -5.0000000000000000e-01
        -5.0000000000000000e-01 -5.0000000000000000e-01
        -5.0000000000000000e-01 -5.0000000000000000e-01
        -5.0000000000000000e-01 -5.0000000000000000e-01
        -5.0000000000000000e-01 -5.0000000000000000e-01
        -5.0000000000000000e-01 -5.0000000000000000e-01
        -5.0000000000000000e-01 -5.0000000000000000e-01
        -5.0000000000000000e-01 -5.0000000000000000e-01
        -5.0000000000000000e-01 -5.0000000000000000e-01
        -5.0000000000000000e-01 -5.0000000000000000e-01
        -5.0000000000000000e-01 -5.0000000000000000e-01
        -5.0000000000000000e-01 -5.0000000000000000e-01
        -5.0000000000000000e-01 -5.0000000000000000e-01
        -5.0000000000000000e-01 -5.0000000000000000e-01
        -5.0000000000000000e-01 -5.0000000000000000e-01
        -5.0000000000000000e-01 -5.0000000000000000e-01
        -5.0000000000000000e-01 -5.0000000000000000e-01
        -5.0000000000000000e-01 -5.0000000000000000e-01
        -5.0000000000000000e-01 -5.0000000000000000e-01
        -5.0000000000000000e-01 -5.0000000000000000e-01
        -5.0000000000000000e-01 -5.0000000000000000e-01
        -5.0000000000000000e-01 -5.0000000000000000e-01
        -5.0000000000000000e-01 -5.0000000000000000e-01
        -5.0000000000000000e-01 -5.0000000000000000e-01
        -5.0000000000000000e-01 -5.0000000000000000e-01
        -5.0000000000000000e-01 -5.0000000000000000e-01
        -5.0000000000000000e-01 -5.0000000000000000e-01
        -1.2027054259081089e-01 -5.0000000000000000e-01
        -5.0000000000000000e-01 -5.0000000000000000e-01
        -5.0000000000000000e-01 -5.0000000000000000e-01
        -5.0000000000000000e-01 -5.0000000000000000e-01
        -5.0000000000000000e-01 -5.0000000000000000e-01
        -5.0000000000000000e-01 -5.0000000000000000e-01
        -5.0000000000000000e-01 -5.0000000000000000e-01
        -5.0000000000000000e-01 -5.0000000000000000e-01
        -5.0000000000000000e-01 -5.0000000000000000e-01
        -5.0000000000000000e-01 -5.0000000000000000e-01
        -5.0000000000000000e-01 -5.0000000000000000e-01
        -5.0000000000000000e-01 -5.0000000000000000e-01
        -5.0000000000000000e-01</alpha>
      <index>
        137 147 146 145 144 143 142 141 140 139 138 136 135 134 133 132
        131 130 129 149 154 153 152 151 150 128 148 103 109 108 107 106
        105 104 102 101 100 99 98 114 127 126 125 124 123 122 121 120
        119 118 117 116 115 113 112 111 110 172 171 170 169 173 183 190
        189 188 187 186 185 184 182 181 180 179 178 177 176 175 174 162
        161 160 159 158 157 156 155 167 168 97 166 165 164 163 96 95 94
        43 44 45 46 47 48 49 42 41 40 39 38 51 1 53 52 50 12 24 23 22 21
        20 19 18 17 16 15 14 13 25 11 10 9 8 7 6 5 4 3 2 0 36 35 37 34
        33 32 31 30 29 28 27 26 67 77 76 75 74 73 72 71 70 69 68 78 93
        92 91 90 89 88 87 86 85 84 83 82 81 80 79 64 63 62 61 60 59 58
        57 56 55 54 66 65</index></_></decision_functions></opencv_ml_svm>
</opencv_storage>
